{
    "input_size": 4,
    "hidden_size": 5,
    "output_size": 3,
    "learning_rate": 0.01,
    "IH_weights": [
        [
            2.610150589598868,
            -3.1817594649952525,
            -4.7070438541692905,
            0.6181975783098701,
            -0.26060248683485127
        ],
        [
            1.9113610638759997,
            -3.3656643419336203,
            -4.263250375438841,
            0.6367358089698121,
            -2.244811464448218
        ],
        [
            -3.963992828265822,
            4.59037185909359,
            7.682357930452437,
            0.6137823930565713,
            2.5987737360137424
        ],
        [
            -3.710023208862218,
            4.5954595906333005,
            5.754373031661346,
            0.37004383003693103,
            2.2861985839750165
        ]
    ],
    "HO_weights": [
        [
            2.8591648248450303,
            0.23467476748499413,
            -3.341151833879648
        ],
        [
            -1.2566906938593745,
            -0.7834760698743131,
            2.9338510503337187
        ],
        [
            -2.76125718315225,
            -2.086206896557027,
            3.7880035855669654
        ],
        [
            1.7121286888521872,
            -0.49475895904284245,
            -0.5443465428098901
        ],
        [
            -5.223517430521475,
            5.435926357076351,
            1.9625017916590959
        ]
    ],
    "HL_bias": [
        [
            1.573083241731871,
            -2.502844397112329,
            -3.08343672819906,
            0.0846085251182388,
            -0.34392833189778427
        ]
    ],
    "OL_bias": [
        [
            0.8126274796217146,
            -0.00629395693522157,
            -0.8063335226864917
        ]
    ]
}