{
  "input_size": 4,
  "hidden_size": 6,
  "output_size": 3,
  "learning_rate": 0.01,
  "momentum": 0.9,
  "Weights": {
    "Input_Hidden_weights": [
      [
        -1.0122944019341118,
        0.9581382245824385,
        0.933100701002909,
        -0.8662254695147695,
        -1.0464424135310053,
        1.9875369062720436
      ],
      [
        -2.105972538030387,
        -0.05906812652795274,
        1.8826816605622763,
        -0.20252050484011874,
        -0.8118318899968331,
        1.3557195273412546
      ],
      [
        -1.3898444098470806,
        0.6137916923655077,
        -3.176248041569707,
        -0.8102918428656696,
        1.441259872403488,
        -3.0453928357635185
      ],
      [
        -0.3280718365460104,
        0.5236996427606555,
        -1.5450012418133237,
        0.28807927719915655,
        1.8425103492432169,
        -1.6655444679717626
      ]
    ],
    "Hidden_Output_weights": [
      [
        -0.35803221313009737,
        0.1979605063198888,
        0.06893528198376479
      ],
      [
        0.6774443594731426,
        1.894533594944382,
        1.4720782693378223
      ],
      [
        5.350446760421069,
        -2.3389554534687482,
        -3.1128941661876337
      ],
      [
        -0.2424894670229939,
        -0.139807684676191,
        0.09886527154207653
      ],
      [
        -0.7241533620669144,
        -0.7510795102122368,
        3.0516065715475773
      ],
      [
        0.7298134672852843,
        3.1971877099046817,
        -2.6655850984160785
      ]
    ]
  },
  "Bias": {
    "Hidden_Layer_bias": [
      [
        -0.362405642259217,
        0.07975410203865836,
        0.2846472259303041,
        -0.009960951702346437,
        -0.7982914504958687,
        1.21901568892598
      ]
    ],
    "Output_Layer_bias": [
      [
        0.3071531424069329,
        1.1350314975464162,
        1.889543835839854
      ]
    ]
  },
  "Momentum": {
    "Input_Hidden_velocity": [
      [
        -6.014778006893865e-06,
        -0.00013243733814989893,
        -0.0017643030127738146,
        -1.9403138890676945e-05,
        -0.001319223084267186,
        0.002076726269778017
      ],
      [
        -4.075462279958307e-06,
        -0.00010086504787561554,
        -0.0006455998806856409,
        -1.1622158574597082e-05,
        -0.009525883929055814,
        0.014323313618489354
      ],
      [
        -1.6879971633085431e-06,
        -1.7723576120532777e-05,
        -0.001312657059401141,
        -1.0082105116139906e-05,
        0.005032765744619,
        -0.005356896032248964
      ],
      [
        -2.377510164344153e-07,
        2.497859560022161e-06,
        -0.0004404884044986156,
        -2.6081412382728123e-06,
        0.007013016667435542,
        -0.010944241518811383
      ]
    ],
    "Hidden_Output_velocity": [
      [
        8.254195603630045e-07,
        -3.295070379572182e-07,
        -1.8410834849174693e-06
      ],
      [
        0.006057080321169028,
        0.007250020031261527,
        0.0036211727634204017
      ],
      [
        0.008234677760374036,
        -0.007307291491503533,
        -0.000593121753733843
      ],
      [
        1.846844847696434e-05,
        -9.611268235451556e-06,
        -6.419191114649539e-06
      ],
      [
        -0.0007579627089616817,
        -0.0020334662480284552,
        0.01211273472359311
      ],
      [
        0.006706954818957225,
        0.014162782891338085,
        -0.011765865647713645
      ]
    ],
    "Hidden_Layer_velocity": [
      [
        -1.2042009379340278e-06,
        -2.8172201732144397e-05,
        -0.0002854917000025222,
        -3.7883649534456633e-06,
        -0.0070242450921160285,
        0.010498461287659676
      ]
    ],
    "Output_Layer_velocity": [
      [
        0.006080392216980821,
        0.007230714639438988,
        0.0036168539794177467
      ]
    ]
  }
}