{
  "input_size": 4,
  "hidden_size": 10,
  "output_size": 3,
  "learning_rate": 0.01,
  "momentum": 0.9,
  "Weights": {
    "Input_Hidden_weights": [
      [
        -0.0705982504046212,
        -1.352074194851813,
        -1.7862495927092348,
        0.6638214027923557,
        0.365443327777359,
        0.4474635560801563,
        0.6473397185369242,
        1.6458310145671853,
        0.4839028897507601,
        1.4815351069271763
      ],
      [
        -0.710215354797309,
        -1.0278669275793082,
        -0.6274496250322635,
        1.5090666197767837,
        0.8077351919153434,
        0.8140099959791524,
        0.8316783589230651,
        0.21550824374447852,
        0.20508969673767558,
        1.4555293905736273
      ],
      [
        -0.7724239807740829,
        1.9237963337628936,
        -0.35024383341968773,
        -2.3001449074530997,
        -1.0354909161078438,
        -1.6088361877387365,
        -0.40285213505290945,
        1.3006192917211974,
        0.14178050546750387,
        -2.3789104371307532
      ],
      [
        -0.615296757620503,
        1.8128344747454748,
        -0.618543288977023,
        -1.6987724347637538,
        -0.4260678523158859,
        -1.1010774030907848,
        0.47349277075745605,
        0.5713696234850864,
        0.19673163252120746,
        -1.8769323668546403
      ]
    ],
    "Hidden_Output_weights": [
      [
        0.7283938914514905,
        0.07058149856817868,
        0.5506944858576641
      ],
      [
        -0.5670876097710834,
        -0.930075429450614,
        3.6192741020705728
      ],
      [
        0.07020013371237648,
        -0.2755551078963537,
        -0.1977380076641214
      ],
      [
        3.615392646821922,
        -1.1156506473553591,
        -3.0681666667096787
      ],
      [
        0.5250805019252737,
        0.20612655026775067,
        -1.591107204806531
      ],
      [
        1.2681200681201397,
        -1.4091198782098222,
        -1.4068986912126467
      ],
      [
        -0.6117134687737559,
        0.6609608349094205,
        0.9547598955676706
      ],
      [
        -1.8018444479194404,
        0.2881600021033544,
        0.7589006626187799
      ],
      [
        -0.5815310390702997,
        0.390230555561567,
        0.1828251735348913
      ],
      [
        2.8588490371922797,
        1.3013313918266727,
        -4.3189360770922764
      ]
    ]
  },
  "Bias": {
    "Hidden_Layer_bias": [
      [
        0.021189242999038602,
        -0.5563479516944477,
        -0.31175816009452023,
        0.3429299578121704,
        0.09314225255695373,
        0.13065302696734357,
        -0.010549383142566237,
        0.3299331316155225,
        -0.021203191497973624,
        0.9252025950365024
      ]
    ],
    "Output_Layer_bias": [
      [
        -0.5047805118888844,
        0.7048690411523314,
        0.05293693500790427
      ]
    ]
  },
  "Momentum": {
    "Input_Hidden_velocity": [
      [
        9.712240519312484e-05,
        -0.0008499201483086485,
        -5.008955474012303e-06,
        -0.0005437395506651974,
        0.00023321980398251422,
        -4.232168704997391e-05,
        -7.28719892057639e-05,
        4.8624792533080655e-06,
        5.522822146674828e-05,
        0.0021532713938691005
      ],
      [
        9.225215859030625e-05,
        -0.0012313134905574145,
        -2.9899199444111937e-06,
        -1.749555669612944e-05,
        0.0010130479519521174,
        0.0007316422492825737,
        -5.0841552175261654e-05,
        2.8707435145269146e-06,
        -9.130852627773897e-05,
        0.002284738483490003
      ],
      [
        -2.2289437226309082e-05,
        0.004884418771001935,
        -1.957865820326452e-06,
        -0.00021066674446701403,
        -0.0014442269335615005,
        -0.0014094165621014395,
        -2.1204391031635324e-05,
        2.0283615665829743e-06,
        0.0002883939973017273,
        -0.0041967437207080785
      ],
      [
        -1.580605357745644e-05,
        0.006993075884438746,
        -3.6463633882518486e-07,
        -9.09950800839288e-05,
        -0.0025983885472821077,
        -0.0006092191765424997,
        5.851909239561594e-06,
        4.226612090653648e-07,
        0.00010710349025385023,
        -0.008071849643025094
      ]
    ],
    "Hidden_Output_velocity": [
      [
        6.095243009260141e-05,
        -1.5971004169570803e-05,
        -3.599696941632244e-05
      ],
      [
        -0.0005516468224734503,
        -0.005115651277886263,
        0.008433913527695618
      ],
      [
        -8.628946662217419e-08,
        2.64696423039355e-07,
        -2.8706801412533384e-06
      ],
      [
        0.003538513215688988,
        -0.002942171852193547,
        -0.00042968932864576324
      ],
      [
        0.0023831941507986977,
        0.002539236004598532,
        -0.002800283174147813
      ],
      [
        0.003249610629969137,
        -0.002489989577979817,
        -0.00056889036842945
      ],
      [
        0.0012220555183951837,
        0.002938312175750586,
        0.002043288988343527
      ],
      [
        0.0012148497291213974,
        0.0031457754047858042,
        0.0018854284686670765
      ],
      [
        0.0011330123188148728,
        0.002880649079147687,
        0.002150836045027165
      ],
      [
        0.001679350365308787,
        0.009754080273726472,
        -0.007758284173881692
      ]
    ],
    "Hidden_Layer_velocity": [
      [
        2.2457537858248755e-05,
        -0.006364565106951474,
        -9.76616819349057e-07,
        -4.883760240994259e-05,
        0.0020859297305811093,
        9.97818365112606e-05,
        -2.1199629019951823e-05,
        9.264489642270943e-07,
        8.396291593493617e-07,
        0.007813577634878575
      ]
    ],
    "Output_Layer_velocity": [
      [
        0.0012194384417707907,
        0.003145122464832761,
        0.0018800161309265734
      ]
    ]
  }
}