{
  "input_size": 4,
  "hidden_size": 12,
  "output_size": 3,
  "learning_rate": 0.01,
  "momentum": 0.9,
  "Weights": {
    "Input_Hidden_weights": [
      [
        -0.8426614458091176,
        0.6428585178219374,
        -0.9147399690795635,
        0.5829892096592338,
        -1.7778711325301746,
        0.5406865474874706,
        0.9276390777451858,
        -0.10279178491314363,
        0.953054746160491,
        -0.6590569578817846,
        -1.0754560195773761,
        -0.45750767358575245
      ],
      [
        -0.4994110221973947,
        0.7680561171941397,
        -1.8552342159102355,
        0.6639568369165153,
        -0.7140996627315639,
        0.974810222460295,
        0.25436881192190647,
        -0.470865457686655,
        0.6985186345820555,
        -0.41467558303139673,
        0.024074111766631056,
        -1.3136176276000655
      ],
      [
        -0.9659550322421177,
        0.018993233454313106,
        2.154745697166814,
        0.29716997293615877,
        2.1963138971682414,
        -0.9422422028201922,
        -1.4459183537227134,
        -0.4417041573206533,
        -2.1491457144451847,
        1.193801618920638,
        -0.093131560810671,
        2.14121396959893
      ],
      [
        -0.3974077086867092,
        0.3292742090160765,
        1.0266089293200424,
        -0.4336473325357051,
        2.2507147612046765,
        -1.6231748653161513,
        -0.33646031489443856,
        -0.4785827740443676,
        -1.4715556118336177,
        0.20600780365925778,
        -0.9783395751483388,
        1.0194456888068801
      ]
    ],
    "Hidden_Output_weights": [
      [
        -0.11118252055167992,
        -0.7811673115511966,
        0.6382569746156646
      ],
      [
        0.6660526157728767,
        0.7133592365644794,
        0.1760723485922037
      ],
      [
        -2.7368789297003198,
        -0.35239623586024654,
        3.355141092112236
      ],
      [
        1.4680060337126053,
        1.6793591363062463,
        0.4772432982574367
      ],
      [
        -1.3215114043335627,
        -1.6801953889574848,
        3.039281589798855
      ],
      [
        1.050674217304922,
        1.4789676433179508,
        -2.0179710410080522
      ],
      [
        1.2302112313209421,
        1.3209062527195534,
        -1.1301636536723159
      ],
      [
        0.657200939668505,
        -0.5337000628487626,
        -0.18657546511598294
      ],
      [
        2.421816047189682,
        -1.6280705965372901,
        -1.3381949261621122
      ],
      [
        -0.33611140002533235,
        -0.3270364012778665,
        0.6719889803822722
      ],
      [
        0.47626077203863987,
        0.7960748048111158,
        -0.49576938196959325
      ],
      [
        -2.3464968869128633,
        2.3517711858305286,
        1.1631589430834428
      ]
    ]
  },
  "Bias": {
    "Hidden_Layer_bias": [
      [
        0.0006944193503148983,
        -0.003239014946353746,
        -0.6392526991434361,
        0.015142893933599457,
        -0.9600047350597596,
        0.7334315016043389,
        0.5495669278667523,
        0.04338675247354924,
        0.17630854462498105,
        -0.1160615579969143,
        0.010124618381776683,
        -0.11681572396834154
      ]
    ],
    "Output_Layer_bias": [
      [
        1.5597420906151016,
        0.8544777096989691,
        0.17190209248952665
      ]
    ]
  },
  "Momentum": {
    "Input_Hidden_velocity": [
      [
        1.5136938334183822e-06,
        0.00010757933996531872,
        0.0003062301369427142,
        0.00033413162786665747,
        -0.0006575890856307737,
        -3.547299662262437e-05,
        9.168813897602815e-05,
        0.00022590501994449212,
        -0.00024773787355793176,
        -0.00023478591383901926,
        5.3770674265301946e-05,
        0.00014264862534079433
      ],
      [
        1.6180975323931111e-06,
        5.021918836429728e-05,
        -0.003584114906846605,
        0.00015930954746852345,
        -0.0032099666250357357,
        0.002916084312223184,
        0.0014265438926312497,
        0.0002445659381110345,
        0.00010187104310060699,
        -0.0007615828523490409,
        2.6095519082597513e-05,
        -0.00020803373176211612
      ],
      [
        -1.1008256850276614e-06,
        8.496803904606117e-05,
        0.0009368199701712882,
        0.00026655739131847356,
        0.0015727323990052905,
        -0.0012853585684370408,
        -0.0010180779172733925,
        -0.0001361324383069233,
        -0.0006111470440383406,
        0.00019365150717319657,
        4.694498414342878e-05,
        0.0008831594033420446
      ],
      [
        -5.710841265275442e-07,
        2.4968767835007492e-05,
        0.004105016271347219,
        7.33268111430023e-05,
        0.004697169317692957,
        -0.0037137119055580237,
        -0.003074409735156631,
        -6.605571672262921e-05,
        -0.0002393771205455396,
        0.0011275073340451835,
        1.4731825545600015e-05,
        0.00036095178093372413
      ]
    ],
    "Hidden_Output_velocity": [
      [
        1.4485415346098204e-06,
        -1.0309588722571508e-06,
        -3.8857709028594645e-07
      ],
      [
        0.0018849840620251779,
        0.001046717378334876,
        -0.0013856382124798508
      ],
      [
        -7.036429774531505e-05,
        -0.0030674103028803623,
        0.0038795414740067868
      ],
      [
        0.001882133964682545,
        0.0010337570872359756,
        -0.0013715200645114827
      ],
      [
        -4.6577357183952146e-05,
        -0.003949634561886205,
        0.0046680685337878456
      ],
      [
        0.001950452394039499,
        0.0037280405076091654,
        -0.004880551887910661
      ],
      [
        0.001930484871152403,
        0.0016379873332677353,
        -0.0028847679427794802
      ],
      [
        0.00011539434694051934,
        9.958830333552838e-05,
        -0.00019846985545808406
      ],
      [
        0.002085436578776103,
        -0.0016973625617375762,
        -0.0003457892314927593
      ],
      [
        -1.0543774902975622e-05,
        4.448750162374067e-05,
        0.0009026276404408418
      ],
      [
        7.828048364481162e-06,
        2.0211141971661596e-06,
        -8.817706964355145e-06
      ],
      [
        -0.00018566348429456146,
        0.0029111846545575026,
        -0.001202620176144308
      ]
    ],
    "Hidden_Layer_velocity": [
      [
        3.953435736987626e-07,
        1.99454507092465e-05,
        -0.00406232904034369,
        6.427574618077322e-05,
        -0.005460727330261303,
        0.004288363218702271,
        0.0027025444329160124,
        5.1812381528382954e-05,
        -1.4573304688185426e-05,
        -0.0010999453153571724,
        9.963671991527605e-06,
        -1.068077576803657e-05
      ]
    ],
    "Output_Layer_velocity": [
      [
        0.001890910833563735,
        0.0010804256332959017,
        -0.0014228614904200272
      ]
    ]
  }
}