{
    "input_size": 4,
    "hidden_size": 8,
    "output_size": 3,
    "learning_rate": 0.01,
    "momentum": 0.9,
    "IH_weights": [
        [
            -0.9192067791967401,
            -0.45354681159453053,
            0.7557379975176652,
            0.09992378269379859,
            -3.39586255239783,
            0.7074436775303259,
            0.709352560844583,
            1.6154726037019065
        ],
        [
            -0.6240013786899461,
            -1.3713173957511444,
            1.766225406244577,
            -2.2458111391093603,
            -3.4479566437296674,
            0.6746314225937388,
            1.0945721580871541,
            1.1586714400188685
        ],
        [
            0.2157011567731223,
            2.4369799222139834,
            -3.0818957119354438,
            1.3672584949360764,
            5.793959518534737,
            0.221153889611736,
            -2.243893775005813,
            -2.4589274579612566
        ],
        [
            -0.316857299054912,
            0.7284758188999879,
            -1.8167201433628934,
            0.9878723816563125,
            5.433758846843359,
            0.028405009450496108,
            -1.8231894424716606,
            -2.782714005115689
        ]
    ],
    "HO_weights": [
        [
            -0.0011214069228626835,
            0.7474263979775144,
            0.32214004722084655
        ],
        [
            -2.9201465117469474,
            3.0043975610959364,
            -0.5149851686850534
        ],
        [
            3.1607012305727378,
            -5.572087000812289,
            -1.3569124296056927
        ],
        [
            -2.1097063062956427,
            -1.1763375288915001,
            2.215780723418164
        ],
        [
            -3.0297540851737423,
            -8.235116394529227,
            8.231242436583482
        ],
        [
            -0.41968930567812746,
            0.6270091786532235,
            -1.4871304114973272
        ],
        [
            2.6301551527622826,
            -3.0534485559445357,
            -1.6388784024310201
        ],
        [
            0.8179461908377061,
            3.28889322211337,
            -4.139389195444952
        ]
    ],
    "HL_bias": [
        [
            0.005358428149230612,
            -0.25761882378155004,
            0.35521057600817596,
            -1.2980565619495046,
            -6.43110794489416,
            0.030146638173154282,
            0.3314110084712565,
            3.121999066703435
        ]
    ],
    "OL_bias": [
        [
            -1.1705452864151351,
            0.10860139495555336,
            -2.16359380608693
        ]
    ],
    "IH_velocity": [
        [
            1.1080994899423725e-05,
            -5.481072099227247e-05,
            2.143646083855663e-05,
            0.000837720879724155,
            -0.0007696248799313342,
            3.057779122120612e-05,
            3.146617302704506e-05,
            0.0004215499161900865
        ],
        [
            4.26315389593802e-06,
            -8.694061387211588e-05,
            3.694450500067953e-05,
            -0.0015933068708725096,
            -0.0007529534377311319,
            1.1046050449877952e-05,
            7.00179015087278e-05,
            -0.00020507322191019888
        ],
        [
            1.0798809238526052e-05,
            0.00017888607534865812,
            -5.5967209554920144e-05,
            0.0001316373335497828,
            0.0015470158230203638,
            2.6337375940311933e-05,
            -0.00010439037347041354,
            -0.00042574684023356335
        ],
        [
            3.5984418621407855e-06,
            8.94200280053206e-05,
            -2.8749066460301992e-05,
            -0.0002644091687255831,
            0.0009354221344426471,
            7.761814242927053e-06,
            -5.0599812409279174e-05,
            -0.0006472248076739579
        ]
    ],
    "HO_velocity": [
        [
            -6.0940879958948744e-09,
            4.581746698618273e-06,
            -4.574062143556514e-06
        ],
        [
            -0.00026968058461263923,
            0.0006278101077635398,
            -0.00021369449294405914
        ],
        [
            0.00025080461252787546,
            -0.0006058951368847099,
            -2.5373877223302948e-06
        ],
        [
            -0.0001212106695234584,
            -0.0005847480941467974,
            0.000620585059957642
        ],
        [
            -2.8930998760132064e-06,
            -0.0018286984064098998,
            0.0018619408003537172
        ],
        [
            -3.126323642682527e-05,
            5.279834293283707e-05,
            -0.00022337181644866677
        ],
        [
            0.00024036922036635837,
            -0.0005840083195668398,
            -1.1404871727473998e-05
        ],
        [
            -5.064332900730112e-06,
            0.000696342922648131,
            -0.001087380002510104
        ]
    ],
    "HL_velocity": [
        [
            1.947055959058673e-06,
            -2.0008656873452505e-05,
            8.218003643919234e-06,
            -0.0003355919391398742,
            -0.0024939491798458887,
            5.321690904797831e-06,
            1.3097884537487332e-05,
            0.0012049496215400656
        ]
    ],
    "OL_velocity": [
        [
            -3.10240679892052e-05,
            5.481606092517293e-05,
            -0.0002261751106944568
        ]
    ]
}