{
  "input_size": 4,
  "hidden_size": 6,
  "output_size": 3,
  "learning_rate": 0.01,
  "momentum": 0.9,
  "Weights": {
    "Input_Hidden_weights": [
      [
        -1.861915102110901,
        -0.08119084106132102,
        -0.8048328779481684,
        -1.051947704885932,
        0.8504654813621155,
        0.8378609492724343
      ],
      [
        -1.6511113149796932,
        2.0638903199188743,
        -0.9026201755312182,
        0.03975400386290522,
        0.8754697561487172,
        0.8698548906205943
      ],
      [
        2.927038381743122,
        -2.2868274726677353,
        -0.016065161820379873,
        -0.8180774481613887,
        0.20741948355384882,
        0.9058198036085788
      ],
      [
        2.0433257671620084,
        -0.21866508185036737,
        0.04085377236933026,
        -0.7002887223424188,
        -1.0022449867379652,
        -0.965343567805729
      ]
    ],
    "Hidden_Output_weights": [
      [
        -4.914732082790861,
        -0.36433432884194367,
        7.550530182166222
      ],
      [
        3.4505502739555385,
        -1.9373542828518484,
        -0.2443692523363063
      ],
      [
        -0.941573702195991,
        -0.2630960601579237,
        -0.061197236437816584
      ],
      [
        -0.19192099103502194,
        -0.5601138868521001,
        0.09452805294213111
      ],
      [
        1.7804694421183513,
        2.8767608744341744,
        2.416985159721575
      ],
      [
        1.69926619739227,
        3.125319134129994,
        1.0195868135759267
      ]
    ]
  },
  "Bias": {
    "Hidden_Layer_bias": [
      [
        -0.981906412058522,
        0.32217794279082423,
        -0.007289784325115098,
        -0.10609764255760128,
        0.23906237007499473,
        -0.0011168992174373064
      ]
    ],
    "Output_Layer_bias": [
      [
        2.5102540182593147,
        2.325053959065096,
        0.2210812878032546
      ]
    ]
  },
  "Momentum": {
    "Input_Hidden_velocity": [
      [
        -0.003380451937122284,
        0.0013090118446223765,
        -5.840765642399119e-05,
        2.817907618767277e-05,
        0.00024422025323488273,
        1.70911602639181e-05
      ],
      [
        -0.005811761668471459,
        0.003683470351966841,
        -3.8195574758131127e-05,
        2.034814380145203e-05,
        0.00011006918293838458,
        2.9004228672874875e-06
      ],
      [
        0.005389976662430373,
        -0.005793044525130735,
        -2.1206463993347873e-05,
        5.430706485726367e-06,
        0.00018155985260615492,
        2.2506401334168306e-05
      ],
      [
        0.015136477818870477,
        -0.002742732411073516,
        -3.05909487557836e-06,
        -1.6466363728491087e-08,
        5.552494503238762e-05,
        7.629246831402749e-06
      ]
    ],
    "Hidden_Output_velocity": [
      [
        -0.0016665397219430647,
        -0.012679508992016779,
        0.01815220153025499
      ],
      [
        0.01533669765575253,
        -0.01296818036000313,
        -0.0005309470701828657
      ],
      [
        5.411135140592774e-06,
        3.299652887422621e-05,
        -2.5243924658155926e-05
      ],
      [
        2.5906949251950806e-05,
        -2.1090033240385697e-05,
        -2.2303176146280552e-06
      ],
      [
        0.0035808629752184947,
        0.00927047643210879,
        0.003440139809999702
      ],
      [
        0.0035839301525204966,
        0.009300162548853963,
        0.003415917876187574
      ]
    ],
    "Hidden_Layer_velocity": [
      [
        -0.012553533225305197,
        0.0007067687276089819,
        -1.2250049720607517e-05,
        5.970262143198562e-06,
        4.316611700282974e-05,
        2.5316463932891534e-06
      ]
    ],
    "Output_Layer_velocity": [
      [
        0.0035880296140503097,
        0.009299364270517125,
        0.0034140611853241865
      ]
    ]
  }
}