{
  "input_size": 4,
  "hidden_size": 10,
  "output_size": 3,
  "learning_rate": 0.01,
  "momentum": 0.9,
  "Weights": {
    "Input_Hidden_weights": [
      [
        -0.04883014450995718,
        0.5098404695990255,
        -0.7395047149644206,
        -1.811592649044303,
        -2.1208769737144464,
        1.9437391600263618,
        0.9134844333784355,
        0.6115792477592432,
        0.7538050457058483,
        -0.4626687970207317
      ],
      [
        -1.781640636209879,
        -0.5882125474814498,
        -0.6287350574809105,
        -1.7255455845939218,
        -0.679312528490854,
        0.4191653648803909,
        0.1285506331025138,
        0.8441167712750571,
        0.5199408718270595,
        -0.9194276011620534
      ],
      [
        1.8314704611356902,
        0.5759449325664339,
        0.19215512130142026,
        2.8700844721291197,
        -0.9191625383964089,
        0.9589275434905887,
        0.6418461794773109,
        0.5807030627131633,
        0.32903746376620346,
        -0.5962358714345215
      ],
      [
        1.6442481014509414,
        -0.12520146616269012,
        0.0711623705338256,
        2.234847273606055,
        0.46153638765738236,
        0.40003536891891045,
        -0.7020199403748546,
        0.3399321817141568,
        -0.0544058345946847,
        -0.9032103123908909
      ]
    ],
    "Hidden_Output_weights": [
      [
        -2.300603462266825,
        3.207596147697912,
        2.006360024995772
      ],
      [
        0.7375522897764049,
        1.2660206690104632,
        0.826168048293267
      ],
      [
        -0.6668858701403583,
        -0.23167637360771223,
        -0.09788018386827527
      ],
      [
        -4.90941270082761,
        -0.31479728683011393,
        7.84958890778993
      ],
      [
        1.0517487230295628,
        -0.23500567054545715,
        -0.19080138191609547
      ],
      [
        1.1839827120403823,
        2.367779822491958,
        0.7326548870423565
      ],
      [
        2.1658514738252266,
        1.872522808556154,
        0.09685385239296503
      ],
      [
        2.094564969686185,
        0.37875877607222197,
        0.19640992219219267
      ],
      [
        2.740044780152822,
        1.0078255825575206,
        1.7310976727412704
      ],
      [
        -0.5957380836018633,
        -0.9325247141523999,
        -0.6370281620948861
      ]
    ]
  },
  "Bias": {
    "Hidden_Layer_bias": [
      [
        -0.3572633773587,
        0.11562714185325121,
        -0.10998739130652714,
        -1.1291114214170666,
        -0.44588578819529145,
        0.3303374295998702,
        0.03661085887396809,
        0.015546532788680583,
        0.09819089713031834,
        0.0014315920531019952
      ]
    ],
    "Output_Layer_bias": [
      [
        1.9620799811707954,
        1.012586619457317,
        0.6839379367281271
      ]
    ]
  },
  "Momentum": {
    "Input_Hidden_velocity": [
      [
        -0.000489406637811151,
        0.000841588916924165,
        -0.00017998587684180003,
        -0.005649659352877864,
        -7.964213218928357e-06,
        6.799728888554047e-06,
        0.00028039924609419024,
        0.00013287491900036068,
        0.00020217799051002632,
        1.3950113284948342e-05
      ],
      [
        -0.0026458860039722293,
        -0.0005701850139375249,
        -0.00011116785368537113,
        -0.003244205710696661,
        -6.277729202225473e-06,
        4.6698968768202464e-06,
        0.00015223890030175309,
        9.09585655679605e-05,
        0.00015952210763665653,
        1.3649136116854356e-05
      ],
      [
        0.004544412429207607,
        0.002558029238316733,
        -7.74230273625711e-05,
        0.004812636903256842,
        -5.210096471537924e-07,
        1.7542974388156515e-06,
        0.00017378795389905947,
        3.624939755245148e-05,
        1.216041191639982e-05,
        -4.062981980249852e-06
      ],
      [
        0.0020147059779353,
        0.0008875618623971573,
        -1.2801927944301212e-05,
        0.012954076220139131,
        4.2743583819188326e-07,
        1.758521503592128e-07,
        4.588915631693058e-05,
        4.2535936358454966e-06,
        -9.138562159869058e-06,
        -2.8221711962141816e-06
      ]
    ],
    "Hidden_Output_velocity": [
      [
        -0.007877361981039041,
        0.015550630775274726,
        0.002803352571792672
      ],
      [
        0.0025388496761562696,
        0.004528132861902499,
        0.0026061243331781205
      ],
      [
        1.397148773888831e-05,
        0.00017561786989296762,
        -0.0001291432551983229
      ],
      [
        -0.001051380504405025,
        -0.01125636029371534,
        0.014999217548437334
      ],
      [
        5.543347596593485e-06,
        -3.553698051320608e-06,
        -3.943346741319394e-06
      ],
      [
        0.006014139695226869,
        0.003082749643734713,
        0.0024129730247721853
      ],
      [
        0.0059760260667193945,
        0.003097938978572555,
        0.0024253907321941126
      ],
      [
        0.006003158876984153,
        0.003088194339815029,
        0.0024144645478724196
      ],
      [
        0.0059879718561617595,
        0.0030786150283596382,
        0.002431580755861111
      ],
      [
        2.2746410978750528e-05,
        -1.5226101570033537e-05,
        -4.376903677509789e-06
      ]
    ],
    "Hidden_Layer_velocity": [
      [
        -0.0004402966909512245,
        8.969234457900587e-05,
        -3.803812579811078e-05,
        -0.012380159489242105,
        -1.7249754786497268e-06,
        1.3716684576583047e-06,
        5.394029704220132e-05,
        2.759715274766848e-05,
        4.378550240240121e-05,
        3.401615638679929e-06
      ]
    ],
    "Output_Layer_velocity": [
      [
        0.006018928125657991,
        0.003080385260204355,
        0.002409465712109025
      ]
    ]
  }
}