{
    "input_size": 4,
    "hidden_size": 5,
    "output_size": 3,
    "learning_rate": 0.01,
    "momentum": 0.9,
    "IH_weights": [
        [
            -0.9987179972066522,
            1.2113181162261426,
            -1.5673286572449399,
            -0.2364550881060863,
            2.9629614457934226
        ],
        [
            -0.08895263507480851,
            1.4272360445262386,
            -0.5869683639380131,
            1.0237256152940315,
            2.927198314272725
        ],
        [
            -0.906797922277889,
            -3.785848975015258,
            0.2010862330072114,
            -0.6762715507770631,
            -4.731979986985991
        ],
        [
            -0.592022537694564,
            -1.4272746011700361,
            -0.12286940764930249,
            -0.6197864087037362,
            -4.5218466598040585
        ]
    ],
    "HO_weights": [
        [
            -0.6151965980241989,
            0.7219229811362698,
            -1.0055513344731906
        ],
        [
            5.995725256618478,
            -6.538841542509605,
            -1.5754135751675065
        ],
        [
            -0.829232384659637,
            0.7452007862634626,
            -0.6737565739339038
        ],
        [
            0.8019338595936346,
            -0.8009217407248315,
            -1.071479182203187
        ],
        [
            2.912880233717459,
            6.8589217570828565,
            -7.587342555953476
        ]
    ],
    "HL_bias": [
        [
            -0.08611381667140035,
            0.41784000580024006,
            -0.07660538597729331,
            0.2270945793161021,
            3.6707160016259133
        ]
    ],
    "OL_bias": [
        [
            -6.07807473719476,
            -3.0867355270407573,
            3.46185784410576
        ]
    ],
    "IH_velocity": [
        [
            -2.8959409613243354e-05,
            0.00012934053583298416,
            4.672371652018124e-06,
            0.00038316272805835724,
            0.0014900466488149662
        ],
        [
            -2.0327287438184186e-05,
            0.0003938381398807729,
            1.7920614138869062e-06,
            0.0012858430411953159,
            0.002143902744618251
        ],
        [
            -6.895750145853632e-06,
            -0.0005114128913204623,
            4.801423111945436e-06,
            -0.0019734071036082365,
            -0.0034795607688806844
        ],
        [
            -5.87239877290388e-07,
            -0.00024391324611746572,
            1.584078251737156e-06,
            -0.0008911025450073572,
            -0.004653290636370225
        ]
    ],
    "HO_velocity": [
        [
            4.462714501481821e-06,
            -4.8978567174021295e-06,
            -2.3186804182732732e-07
        ],
        [
            0.003971481326548419,
            -0.004516485879778845,
            -1.6079398794883553e-05
        ],
        [
            4.8833785642594227e-08,
            5.635591750227561e-07,
            -5.980254742715964e-07
        ],
        [
            0.0024093325236822912,
            -0.00215345619922317,
            -0.0007183616419191921
        ],
        [
            -0.0015378143089171763,
            0.006895146898601037,
            -0.005953759635915135
        ]
    ],
    "HL_velocity": [
        [
            -6.039015175347796e-06,
            7.043908710497741e-05,
            7.823621711088774e-07,
            0.0002508415484763187,
            0.009669264125279372
        ]
    ],
    "OL_velocity": [
        [
            -0.0018177543384439452,
            -0.0029936522065866084,
            0.0023192603444490084
        ]
    ]
}