{
  "input_size": 4,
  "hidden_size": 5,
  "output_size": 3,
  "learning_rate": 0.002,
  "momentum": 0.9,
  "Weights": {
    "Input_Hidden_weights": [
      [
        1.1392502698740121,
        1.2999727518376338,
        0.8795332173822966,
        0.8055901465452724,
        0.30587091270155936
      ],
      [
        -0.40426364719337743,
        -0.2457410738281657,
        1.0281789096809333,
        0.6816733049254774,
        0.9724469550403677
      ],
      [
        0.08988833397024615,
        0.257602574120978,
        -2.0326944073344904,
        -0.6114291825892255,
        0.6698471598642998
      ],
      [
        0.5333226258134505,
        -0.6354181981189622,
        -0.3403212183557666,
        1.015641075220287,
        0.8769277245663412
      ]
    ],
    "Hidden_Output_weights": [
      [
        0.16513694708908547,
        0.1084670201698392,
        0.33654397830052374
      ],
      [
        -0.7036861043964325,
        0.1826283326317998,
        0.9821059248355026
      ],
      [
        4.040266629899137,
        -0.004379534100703341,
        -1.9760092745220195
      ],
      [
        -0.2867553260920775,
        0.2786766980188953,
        0.7142286559613749
      ],
      [
        0.28776419816903065,
        0.30624692473620047,
        -0.13132382690849717
      ]
    ]
  },
  "Bias": {
    "Hidden_Layer_bias": [
      [
        0.05044026082540355,
        0.05856568932687346,
        0.2579013772141733,
        0.04212579854184056,
        0.00833169326038777
      ]
    ],
    "Output_Layer_bias": [
      [
        -0.17275763082774587,
        0.9283472853182654,
        0.34167179599347913
      ]
    ]
  },
  "Momentum": {
    "Input_Hidden_velocity": [
      [
        4.966713588411957e-05,
        -0.0002819123936527354,
        0.003434172821596566,
        -2.0257358122343364e-05,
        7.431958167166436e-05
      ],
      [
        4.92248076257558e-05,
        -0.0002020663811969665,
        0.002194434754261427,
        -6.83386282258398e-05,
        4.122773884798351e-05
      ],
      [
        -9.496355964647783e-06,
        -4.379648315895231e-05,
        -0.0022692931307339874,
        0.0001731117430905676,
        3.624863636409283e-05
      ],
      [
        -6.248861219506918e-06,
        1.1862071895439642e-05,
        -0.0032812003398675063,
        9.027003655158111e-05,
        8.800208878114289e-06
      ]
    ],
    "Hidden_Output_velocity": [
      [
        0.008136878971322394,
        0.011702423125513445,
        0.013515471388020976
      ],
      [
        0.008337827932159845,
        0.01161674449964356,
        0.013469157604304317
      ],
      [
        0.021250628947061815,
        0.008124709060607794,
        -0.016114102480274686
      ],
      [
        0.008387248177164453,
        0.011409435300323451,
        0.013535989853302823
      ],
      [
        0.008328987994153728,
        0.011633836695451337,
        0.013471653927155124
      ]
    ],
    "Hidden_Layer_velocity": [
      [
        1.1559105279144859e-05,
        -6.03838953191422e-05,
        0.0011294304211042342,
        -2.072369776071326e-05,
        1.424102299460561e-05
      ]
    ],
    "Output_Layer_velocity": [
      [
        0.008397466640068971,
        0.011608773075481986,
        0.013453897560471495
      ]
    ]
  }
}