{
  "input_size": 4,
  "hidden_size": 6,
  "output_size": 3,
  "learning_rate": 0.01,
  "momentum": 0.9,
  "Weights": {
    "Input_Hidden_weights": [
      [
        -0.47503842779564054,
        -1.190670265425055,
        -0.35291933825297483,
        0.6060788203263735,
        1.7959896141079377,
        1.1398293966560749
      ],
      [
        -0.358251697270931,
        -1.3669407317481328,
        -0.8130082314763406,
        0.39415210662211597,
        1.5692697661105302,
        0.746303828303386
      ],
      [
        0.8436060414292413,
        1.8900816479170222,
        -1.0386529308007493,
        0.08419594541321357,
        -2.850948825725018,
        -2.72747423053677
      ],
      [
        -0.6742209460852759,
        2.120363641187748,
        -0.4235988373170988,
        -0.27142382076572485,
        -1.949817545574958,
        -1.7251792235062071
      ]
    ],
    "Hidden_Output_weights": [
      [
        -0.7467663435287857,
        0.7589632608675144,
        0.6258529016979328
      ],
      [
        -3.911016141880564,
        -0.8310903214082096,
        3.9880156122313544
      ],
      [
        0.7655470059697776,
        0.6656690256714924,
        0.5637910252862126
      ],
      [
        -0.08482713126780818,
        0.8498052247859397,
        1.1546191412243287
      ],
      [
        3.5263206825421003,
        2.643499452776476,
        -3.3750643811099335
      ],
      [
        4.099005936705206,
        -1.527894212755237,
        -2.0131929074398554
      ]
    ]
  },
  "Bias": {
    "Hidden_Layer_bias": [
      [
        -0.024317727604331114,
        -0.8166138046785758,
        -0.12371280607027806,
        -0.019132654542482173,
        1.1090765727503205,
        0.18578731921707928
      ]
    ],
    "Output_Layer_bias": [
      [
        -0.7341804411240515,
        1.4481205601546077,
        0.5070281867990448
      ]
    ]
  },
  "Momentum": {
    "Input_Hidden_velocity": [
      [
        0.005246913413693657,
        -0.0015248201163675708,
        7.350578351023166e-06,
        -0.00015764655154381656,
        0.001990682437881196,
        0.0008553844062633656
      ],
      [
        0.0018566209052670996,
        -0.0008485689342861171,
        4.748603020645647e-06,
        -0.0001591626567295015,
        0.0005463872169578261,
        0.0013476843667095603
      ],
      [
        0.004660094739252929,
        0.0013107031895759154,
        2.6190750637495546e-06,
        3.4995645222762005e-05,
        -0.003367780665904368,
        -0.0009471191069767666
      ],
      [
        0.0014962514523963663,
        0.004464332421087976,
        5.00879897756074e-07,
        4.310975817500652e-05,
        -0.007496740943908124,
        -0.0004969554580009772
      ]
    ],
    "Hidden_Output_velocity": [
      [
        -0.0003139911391277475,
        0.0021377739324484374,
        -0.0010223542418886997
      ],
      [
        -0.0010446259032771683,
        -0.003974229100505679,
        0.007155935519147539
      ],
      [
        1.5251525390026278e-05,
        -1.2186847068833462e-05,
        -2.7333617902202807e-06
      ],
      [
        0.002079565271680172,
        0.0013367714424381131,
        0.0016223225196808438
      ],
      [
        0.002701468711212552,
        0.0072316312918684,
        -0.0065179550319734245
      ],
      [
        0.006940418449417473,
        -0.006803898128625033,
        -8.144113039027106e-05
      ]
    ],
    "Hidden_Layer_velocity": [
      [
        0.0008754459963140257,
        -0.005621686402424453,
        1.4993865068212117e-06,
        -4.8279031203988554e-05,
        0.007272742828194749,
        0.00028767404605283876
      ]
    ],
    "Output_Layer_velocity": [
      [
        0.0021198370147589777,
        0.0015026933066490417,
        0.0014632931241778451
      ]
    ]
  }
}