{
  "input_size": 4,
  "hidden_size": 5,
  "output_size": 3,
  "learning_rate": 0.01,
  "momentum": 0.9,
  "Weights": {
    "Input_Hidden_weights": [
      [
        -1.3144703420246873,
        -0.3308475342556864,
        0.2929772364376033,
        1.8003719923398769,
        -0.8824677933769568
      ],
      [
        -0.9161268173165735,
        -1.6268101124496335,
        0.9501260421208755,
        1.6122770493592824,
        -0.14493490459342934
      ],
      [
        0.34533203003808977,
        2.211312749531667,
        0.819397980901556,
        -2.8911213227487726,
        -0.5579795308134309
      ],
      [
        -0.3102707507196082,
        1.2727927657389073,
        0.7310785660923815,
        -1.6500867806323731,
        -0.43178737348933305
      ]
    ],
    "Hidden_Output_weights": [
      [
        0.7854919827773722,
        0.5321980760737087,
        0.10523027372296215
      ],
      [
        -2.758430975665245,
        2.2635004150927784,
        3.5075205671230854
      ],
      [
        0.6617334067700718,
        0.5773228580454518,
        1.076106213195892
      ],
      [
        4.683747945446743,
        2.035654398097206,
        -3.701674227564511
      ],
      [
        -0.13116617492341415,
        -0.34820503101250005,
        -0.9486823957975219
      ]
    ]
  },
  "Bias": {
    "Hidden_Layer_bias": [
      [
        -0.0881054385635057,
        -0.3209791098107682,
        0.0019559355019212452,
        0.5854526199524833,
        0.004770979801195458
      ]
    ],
    "Output_Layer_bias": [
      [
        1.0218395872598753,
        1.2317415971531442,
        1.9321013278194725
      ]
    ]
  },
  "Momentum": {
    "Input_Hidden_velocity": [
      [
        -0.00034196375437700155,
        0.008856543248870532,
        -5.222917319121208e-05,
        -0.0002627389215426809,
        0.00016458365913834885
      ],
      [
        -0.00013869466533582807,
        0.0010137178882225711,
        -3.68032899004031e-05,
        0.0024683127871570638,
        0.00010238823519967913
      ],
      [
        -0.00033311166475128785,
        0.011533892424267543,
        -1.2349642735910782e-05,
        -0.04442716696524199,
        6.561199934614813e-05
      ],
      [
        -0.00012422209941391582,
        0.00467570475476235,
        -8.261594500339088e-07,
        -0.03819751228635566,
        1.3280795696570327e-05
      ]
    ],
    "Hidden_Output_velocity": [
      [
        -8.641260879349887e-05,
        4.6330709860202675e-05,
        5.673949125208158e-05
      ],
      [
        -0.014077222139014453,
        0.024341938145162684,
        0.029290340856031237
      ],
      [
        0.023035481605133634,
        -0.0022785178752944405,
        0.02436616748191991
      ],
      [
        0.02867202345495612,
        0.04919810935707449,
        -0.0462824717451319
      ],
      [
        0.00012205031478897325,
        -7.93775983693556e-05,
        -2.302849021141868e-05
      ]
    ],
    "Hidden_Layer_velocity": [
      [
        -4.824517416256611e-05,
        0.0009265615273386849,
        -1.0943538209368269e-05,
        0.014040591847790537,
        3.283944155656698e-05
      ]
    ],
    "Output_Layer_velocity": [
      [
        0.023136393026340372,
        -0.002340443069379884,
        0.02434431764370845
      ]
    ]
  }
}