{
  "input_size": 4,
  "hidden_size": 8,
  "output_size": 3,
  "learning_rate": 0.01,
  "momentum": 0.9,
  "Weights": {
    "Input_Hidden_weights": [
      [
        1.057017180423403,
        -1.2426733763955533,
        2.0322247183029254,
        -0.21740953059774892,
        -3.726798201000808,
        -1.8675879758708571,
        0.42648938987994983,
        0.008760113917222145
      ],
      [
        0.20318152565877,
        -1.9417502527012023,
        0.4842847271845965,
        -1.8890501466892615,
        -3.870878757114065,
        -0.1517698747457665,
        2.309076821439279,
        -1.3340558448222557
      ],
      [
        0.31423450185055585,
        -0.10613461383492513,
        0.49837147054416736,
        2.7613654611534635,
        6.414339829751151,
        -1.2540106553948211,
        -3.0991502343795325,
        -1.1355504289737892
      ],
      [
        -0.39886813485753153,
        0.7707516466489247,
        -0.17411795056872348,
        0.11448299579311896,
        6.0686539068313285,
        -0.8029697436483011,
        -1.4808600398453686,
        -0.09505815372419983
      ]
    ],
    "Hidden_Output_weights": [
      [
        -0.1683789832577129,
        1.1379452682715656,
        -1.9790962456811407
      ],
      [
        -0.8260610247573661,
        -0.30211018012378577,
        0.7981758912434077
      ],
      [
        -0.5442815126734171,
        -0.38381497784221,
        -0.6109976226641249
      ],
      [
        -3.1121231848084294,
        3.8654534395982507,
        -1.433210492842912
      ],
      [
        -3.3917318840040633,
        -9.696005235961207,
        10.108015711116694
      ],
      [
        -0.5188506804100622,
        0.44701909554103975,
        -0.9118349038322188
      ],
      [
        5.903343255119166,
        -5.644994836658969,
        -2.6626050054992447
      ],
      [
        0.4774291925994252,
        0.6845575070005698,
        0.4829976510238103
      ]
    ]
  },
  "Bias": {
    "Hidden_Layer_bias": [
      [
        0.08686059584315442,
        -0.3880853116656766,
        0.17828531411302115,
        -0.28907596712531464,
        -7.300849273316436,
        -0.276016439217058,
        0.2942692753865355,
        -0.10064736062541131
      ]
    ],
    "Output_Layer_bias": [
      [
        -0.5855024942792809,
        0.39236548645045605,
        -1.224172217221811
      ]
    ]
  },
  "Momentum": {
    "Input_Hidden_velocity": [
      [
        2.0786131464534863e-05,
        -1.451640979002355e-07,
        1.1171609387762886e-09,
        -7.167326329067896e-05,
        -0.0008819220124839341,
        -1.8026247425453007e-08,
        2.1174144335986753e-05,
        -1.3672202954403297e-06
      ],
      [
        1.0155020050371569e-05,
        -5.4140210376688066e-08,
        4.953502501126059e-10,
        -9.428045237757706e-05,
        -0.0008400236476263432,
        -1.2311130658389914e-08,
        4.4880479382666454e-05,
        -1.166438158999522e-06
      ],
      [
        2.0591882875626715e-05,
        -1.1191421743180853e-07,
        1.0237771322862863e-09,
        0.00023803330562927066,
        0.0017315178971594066,
        -5.1024392159734145e-09,
        -7.616001488985227e-05,
        -1.6932672804097735e-08
      ],
      [
        6.8101160514685356e-06,
        -2.9992883119455384e-08,
        3.4794334303419886e-10,
        0.00012370587109719052,
        0.0011920126327403424,
        -6.535904162396771e-10,
        -3.846148168874164e-05,
        8.184550560012489e-08
      ]
    ],
    "Hidden_Output_velocity": [
      [
        -1.1065390064659746e-05,
        5.0954687177368265e-05,
        -0.00021467656788353833
      ],
      [
        -1.699901066450543e-09,
        2.4401688386961472e-08,
        -2.2870211160774417e-08
      ],
      [
        -1.0467613151699738e-05,
        5.166665606676249e-05,
        -0.0002162357724088982
      ],
      [
        -0.0004951590986452406,
        0.0006685181206441189,
        -0.00019359867327042795
      ],
      [
        -1.0380408581399922e-05,
        -0.002066135567564325,
        0.0021302645752770276
      ],
      [
        3.5667377334519294e-09,
        -4.60097521450252e-09,
        -1.0383508755498287e-10
      ],
      [
        0.0004999288663040824,
        -0.0006444094571263351,
        -1.3153912685547944e-05
      ],
      [
        9.200974024898206e-07,
        -6.472061876804739e-07,
        -6.449641541259616e-07
      ]
    ],
    "Hidden_Layer_velocity": [
      [
        3.790593552190669e-06,
        -2.422209566327671e-08,
        1.9356446977757456e-10,
        -2.699042147322942e-05,
        -0.0027933113751098027,
        -3.812596188087653e-09,
        9.855322819737792e-06,
        -3.1417991985425496e-07
      ]
    ],
    "Output_Layer_velocity": [
      [
        -1.0465661408047298e-05,
        5.166489726327867e-05,
        -0.00021623672457218846
      ]
    ]
  }
}