{
  "input_size": 4,
  "hidden_size": 10,
  "output_size": 3,
  "learning_rate": 0.01,
  "momentum": 0.9,
  "Weights": {
    "Input_Hidden_weights": [
      [
        0.2024654490649357,
        -0.07666625144206594,
        1.0885566189643976,
        -0.8813250743548044,
        -0.8416569741424201,
        1.7146328043402381,
        2.2291914131211095,
        -0.17994907856710962,
        -0.7659476054068535,
        -0.9609294762624796
      ],
      [
        -1.488799045738826,
        -0.2368815204681879,
        0.16892006657381808,
        0.010018987280841178,
        -2.280991383058818,
        0.16203056719052852,
        2.0439946965069344,
        2.3616468554450774,
        -1.482362431982154,
        0.20752220725843254
      ],
      [
        0.8992002197002831,
        0.7476813876793516,
        0.28142667683149275,
        -0.35596716657105126,
        -0.6619697555155011,
        0.7475275329340303,
        -3.3887788574500743,
        -2.369320644911464,
        2.023365907420542,
        -0.70271190666486
      ],
      [
        0.4800740997276581,
        -0.4284895585386564,
        0.055913836350194916,
        0.002742259438469486,
        0.5764048238758647,
        -0.5213758875262472,
        -2.8692552396644246,
        -0.24737070083625232,
        0.630467516807354,
        0.47651690788340356
      ]
    ],
    "Hidden_Output_weights": [
      [
        -1.5690885281420588,
        0.5161624436905238,
        1.5598622690275312
      ],
      [
        -0.9439295044852029,
        0.6945866648761265,
        0.41937557291614774
      ],
      [
        0.553447870685715,
        0.3164083031644818,
        0.3501253442455596
      ],
      [
        -0.09043852291346852,
        -0.7238419495694173,
        -0.3191067427493731
      ],
      [
        -0.6877892350134448,
        -0.06935127688005054,
        -0.22866810929189757
      ],
      [
        0.21245346452152836,
        -0.017725830316142964,
        0.9560334738414048
      ],
      [
        2.5581575637748806,
        2.4451206151172387,
        -5.11818584847949
      ],
      [
        3.2333580655891296,
        -1.0692260483431553,
        -0.8669029886744419
      ],
      [
        -1.4665932402698574,
        1.0751436080485188,
        2.955557776021153
      ],
      [
        -0.702556189030339,
        0.5179551163632699,
        -0.7551073639921676
      ]
    ]
  },
  "Bias": {
    "Hidden_Layer_bias": [
      [
        -0.24501285666715583,
        -0.07800850950432417,
        -0.0273982833092327,
        0.007705070423630204,
        -0.3733002786788209,
        0.16840493672918513,
        1.2791274239744528,
        0.28887052165726906,
        -0.3879202684110398,
        -0.023600352459969387
      ]
    ],
    "Output_Layer_bias": [
      [
        0.12391937994611776,
        0.4043308205904218,
        0.3889367920006593
      ]
    ]
  },
  "Momentum": {
    "Input_Hidden_velocity": [
      [
        -0.00040729010159508395,
        -0.0009296229703045884,
        7.754082107007376e-06,
        -1.4085052455007934e-05,
        -5.437077060498746e-06,
        3.6376421495003593e-06,
        0.00429797802709494,
        2.4856745446969385e-05,
        -0.0010295689472186883,
        -2.5474309987999127e-05
      ],
      [
        -0.0011106696111512356,
        -0.0016473804893690778,
        4.303554510072269e-06,
        7.025502331416221e-06,
        -4.40010096602047e-06,
        2.239697280984881e-06,
        -0.002868792895081014,
        0.00030027241056993225,
        -0.0005734511127092587,
        -3.376868622984241e-05
      ],
      [
        0.00014418084141272912,
        0.0015900674523266916,
        6.167057457925573e-06,
        -4.393951704794721e-05,
        -1.2891596380966772e-07,
        2.645294539330095e-06,
        -0.003917750095390034,
        -0.0006425713044539614,
        -0.0008742242401165803,
        3.7161861405160024e-05
      ],
      [
        0.0006805441621926797,
        0.0005813449505749685,
        2.4486548811062565e-06,
        -1.633552543476749e-05,
        3.8758028372765985e-07,
        1.1138221436748307e-06,
        -0.00876823818404357,
        -0.0003169611130394923,
        0.0010284926866707994,
        1.5848447695405807e-05
      ]
    ],
    "Hidden_Output_velocity": [
      [
        -0.0010752137081564246,
        0.0006849609733053553,
        0.003466580434582793
      ],
      [
        8.128513153056157e-05,
        0.000739251585286117,
        0.00237164356883284
      ],
      [
        0.0012116030619960727,
        0.0010701846762768902,
        0.0015331144738330183
      ],
      [
        2.0729006981239267e-05,
        1.021368503184391e-05,
        -2.58204133483261e-05
      ],
      [
        9.097287785197714e-07,
        -1.5878560234628488e-06,
        -2.391342451979339e-06
      ],
      [
        0.0012122094540286037,
        0.0010745661636248189,
        0.0015305487048414966
      ],
      [
        0.0013427002438805042,
        0.00948987631181784,
        -0.008183833241193681
      ],
      [
        0.00288477949766273,
        -0.00266382741675945,
        -0.0001582673460246516
      ],
      [
        -0.0008041208833613619,
        -0.0008406011873600964,
        0.0042499190129702226
      ],
      [
        1.8820888430006222e-05,
        -4.731423530815814e-06,
        -1.1626839544287672e-05
      ]
    ],
    "Hidden_Layer_velocity": [
      [
        -0.0006422578400149698,
        -0.00017931090370989868,
        1.1657624787929825e-06,
        -1.1534593034419785e-06,
        -1.19529711911536e-06,
        5.413849408232995e-07,
        0.008791719321657183,
        5.081971216207778e-05,
        -0.001193689541809072,
        -6.7608332587167e-06
      ]
    ],
    "Output_Layer_velocity": [
      [
        0.0012128815953947772,
        0.0010729269932624392,
        0.001529945709618244
      ]
    ]
  }
}