{
    "input_size": 4,
    "hidden_size": 8,
    "output_size": 3,
    "learning_rate": 0.01,
    "momentum": 0.9,
    "Input_Hidden_weights": [
        [
            -1.1556785367787912,
            0.8021393078533913,
            0.795802392915084,
            -3.2051712870414546,
            1.2703432893528708,
            -2.0438669679500947,
            0.6399417794583965,
            -1.4414921645373537
        ],
        [
            0.1414318375607204,
            2.2749086616604646,
            1.013467152682618,
            -3.211160334070098,
            1.2662663370114626,
            -0.09702787268814908,
            0.42688397761396984,
            -1.9301930757378933
        ],
        [
            -0.9859795215749795,
            -3.995276034702161,
            -0.08840410344136633,
            5.572016338852803,
            -1.7983882873238868,
            1.0188504337293014,
            0.3646588653851853,
            2.7277755572227704
        ],
        [
            -0.05765767686369577,
            -0.855195227715135,
            0.3212360016941817,
            4.8645903102346075,
            -3.1181218170902483,
            0.035718863057603155,
            0.9949097261628598,
            2.692519259547403
        ]
    ],
    "Hidden_Output_weights": [
        [
            -0.7156119976085665,
            -1.377736308675512,
            -0.44579172686872
        ],
        [
            7.66293737548776,
            -9.941951781214575,
            -2.045445044296187
        ],
        [
            -1.2979125008852557,
            0.5388255668690376,
            -1.9571916267767426
        ],
        [
            -5.2092217504848355,
            -6.705122099651692,
            8.097939886137814
        ],
        [
            -0.37399369941381494,
            2.6375987237895284,
            -3.2254582488988053
        ],
        [
            -1.2315297681190405,
            -0.8523861687422941,
            1.0851353605826615
        ],
        [
            -0.5238925278397308,
            1.895035228534824,
            -1.47833384257584
        ],
        [
            -2.3796860225361938,
            -2.6498793576767077,
            3.654695064245286
        ]
    ],
    "Hidden_Layer_bias": [
        [
            -0.15217444374091085,
            0.4057023466395551,
            0.01947955267746438,
            -6.277217243464971,
            2.6730981322121354,
            -0.2817870635004597,
            0.021846836373452746,
            -3.2424950105270045
        ]
    ],
    "Output_Layer_bias": [
        [
            -1.40706728159939,
            0.9493859247730979,
            -0.9957640116779516
        ]
    ],
    "Input_Hidden_velocity": [
        [
            6.3421737139838235e-06,
            3.5660760257837174e-05,
            3.313696230768896e-05,
            -0.0007364409620428405,
            0.00010035643237954556,
            -2.320641972682764e-05,
            -4.7703587074454026e-05,
            -0.00020107742869744346
        ],
        [
            4.403242585724542e-06,
            8.858372707047658e-05,
            1.0764660265163457e-05,
            -0.0007527549454902845,
            0.0002578349934296624,
            -1.3327554222427862e-05,
            -4.0234335094333664e-05,
            -0.00018589176099914894
        ],
        [
            1.5888133716736659e-06,
            -0.0001347798565830377,
            2.8591604598982056e-05,
            0.0015280213650071994,
            -0.00029471988948637283,
            -1.9606119375118116e-05,
            1.021165402119448e-06,
            0.00043388421452950727
        ],
        [
            1.702290200824443e-07,
            -6.765751519310228e-05,
            8.867320481913273e-06,
            0.000938326927894259,
            -0.0005194594990177475,
            -7.028458420626301e-06,
            4.256225040378706e-06,
            0.00039269781337665277
        ]
    ],
    "Hidden_Output_velocity": [
        [
            1.2385765727843851e-06,
            -1.5773790657608856e-06,
            -6.027361272543242e-08
        ],
        [
            0.001185715937241725,
            -0.0015585108316197058,
            -1.4170536119260208e-06
        ],
        [
            -0.00019770614049061005,
            0.00016035265633163983,
            -0.00017134792792204595
        ],
        [
            -1.8371362733405782e-05,
            -0.001770529390884329,
            0.0018149007541757817
        ],
        [
            -7.151296128380153e-05,
            0.0005696943983843432,
            -0.0008249790969084098
        ],
        [
            -2.4566412639337356e-07,
            3.134359230128503e-06,
            -1.8445463720102181e-06
        ],
        [
            -0.0002024308835087645,
            0.00016818883321114238,
            -0.00017236891176886343
        ],
        [
            -0.00011761632255096191,
            -0.00046718099357843435,
            0.0008833924004283603
        ]
    ],
    "Hidden_Layer_velocity": [
        [
            1.3118208317721025e-06,
            1.7949547754712014e-05,
            5.526790579139055e-06,
            -0.002523650151280107,
            0.0011280618073976657,
            -4.367090631364386e-06,
            -1.0645406043535652e-05,
            -0.00114752291411346
        ]
    ],
    "Output_Layer_velocity": [
        [
            -0.00019776934659754202,
            0.00016299539357444526,
            -0.0001734088544379948
        ]
    ]
}