{
  "input_size": 4,
  "hidden_size": 5,
  "output_size": 3,
  "learning_rate": 0.01,
  "momentum": 0.9,
  "Weights": {
    "Input_Hidden_weights": [
      [
        1.8026487807863123,
        -0.3554053230857008,
        0.6240671541824462,
        1.3786783499521513,
        -0.9212641578070413
      ],
      [
        2.3200260540386552,
        -1.553099696037399,
        0.7622916584389413,
        -0.6285015464073618,
        0.28915544708209073
      ],
      [
        -3.3446222402976113,
        1.8234517797203293,
        0.07390862453466465,
        -1.0875299682909585,
        -0.9632423781507787
      ],
      [
        -2.057090655570311,
        1.4424683265945641,
        0.6005737889773689,
        -1.78451445552783,
        0.9602553945197255
      ]
    ],
    "Hidden_Output_weights": [
      [
        4.53333566023903,
        3.138056406781238,
        -3.872421421969665
      ],
      [
        -5.55518330271565,
        1.7815987336435857,
        5.520700245415217
      ],
      [
        2.3163588750179733,
        1.8014377645163127,
        1.405148731011068
      ],
      [
        1.421469641732575,
        1.5827355250708617,
        -1.5976214648124498
      ],
      [
        -0.607125127420629,
        -0.9094334893702798,
        -0.307346066401409
      ]
    ]
  },
  "Bias": {
    "Hidden_Layer_bias": [
      [
        1.5348075645398636,
        -0.41117252095723167,
        0.03801901264828304,
        0.7419443944474265,
        -0.015956683045725537
      ]
    ],
    "Output_Layer_bias": [
      [
        2.373781439206172,
        0.8249892226575751,
        1.483346448436753
      ]
    ]
  },
  "Momentum": {
    "Input_Hidden_velocity": [
      [
        0.0007983615250160049,
        0.0009875979453293114,
        0.00012915058581034923,
        0.0014782214932310986,
        2.2722039693283393e-05
      ],
      [
        0.004141382633903997,
        -0.0007254166031809333,
        6.842582600821255e-05,
        0.0007203363422246363,
        2.4099979378732997e-05
      ],
      [
        -0.0021826043312243863,
        0.00014244470864532448,
        8.026582909479235e-05,
        -0.0021321580036929395,
        -2.026285112587505e-05
      ],
      [
        -0.00961406738754457,
        0.00024596129237261754,
        2.2369519945231925e-05,
        -0.004211785818198064,
        -9.007705806421418e-06
      ]
    ],
    "Hidden_Output_velocity": [
      [
        0.0034981847490754506,
        0.007570703768119294,
        -0.007437745665347987
      ],
      [
        -0.0027482618145609804,
        0.004620622504177509,
        0.003353766951170685
      ],
      [
        0.0032032700872375685,
        -0.00044268993813992367,
        0.0027116144049105597
      ],
      [
        0.0041635661328264,
        0.002240606291391032,
        -0.004005102831479572
      ],
      [
        4.983948494070864e-05,
        -3.5646242763272853e-05,
        -1.0988278300168789e-05
      ]
    ],
    "Hidden_Layer_velocity": [
      [
        0.007303348251976498,
        -6.524899117621872e-05,
        2.415746205962969e-05,
        0.003271171538894199,
        5.3477486509832966e-06
      ]
    ],
    "Output_Layer_velocity": [
      [
        0.0032163315223245523,
        -0.0004302034791787887,
        0.002691170967483671
      ]
    ]
  }
}